tree
version=v4
num_class=1
num_tree_per_iteration=1
label_index=0
max_feature_idx=2
objective=binary sigmoid:1
feature_names=size len len_dict
feature_infos=[16:310872144] [0:8095944] [0:602]
tree_sizes=552 565 562 562 563 564 567 559 564 562

Tree=0
num_leaves=4
num_cat=0
split_feature=2 1 0
split_gain=109899 10230.7 6613.77
threshold=3.5000000000000004 2.5000000000000004 40.000000000000007
decision_type=10 8 2
left_child=2 -2 -1
right_child=1 -3 -4
leaf_value=1.2189072246981274 2.6419149460813607 1.4252280830003561 2.5888278301459318
leaf_weight=35.292880564928055 74.702139168977737 923.41831290721893 24365.044058382511
leaf_count=523 1107 13684 361062
internal_value=2.54478 1.51629 2.58685
internal_weight=0 998.12 24400.3
internal_count=376376 14791 361585
is_linear=0
shrinkage=1


Tree=1
num_leaves=4
num_cat=0
split_feature=2 0 2
split_gain=37282.9 5960.18 1909.06
threshold=3.5000000000000004 212.00000000000003 7.5000000000000009
decision_type=10 2 10
left_child=1 -1 -2
right_child=2 -3 -4
leaf_value=-0.040785007454568499 -0.44500201851944032 0.070991220125701887 -0.23203820510578024
leaf_weight=6645.2978696152568 1640.9226935654879 16908.735805161297 566.15923611819744
leaf_count=101372 11168 260213 3623
internal_value=0 0.0394558 -0.390373
internal_weight=0 23554 2207.08
internal_count=376376 361585 14791
is_linear=0
shrinkage=0.1


Tree=2
num_leaves=4
num_cat=0
split_feature=1 0 2
split_gain=25388.1 4334.65 3743.85
threshold=15765.000000000002 212.00000000000003 3.5000000000000004
decision_type=8 2 8
left_child=1 -1 -2
right_child=2 -3 -4
leaf_value=-0.028651243338409974 0.084273159785815788 0.068005432064442914 -0.30180860225408185
leaf_weight=6549.5157456994057 276.0306541621685 15911.405695110559 2788.1702216565609
leaf_count=96912 4103 260181 15180
internal_value=0 0.0398207 -0.267029
internal_weight=0 22460.9 3064.2
internal_count=376376 357093 19283
is_linear=0
shrinkage=0.1


Tree=3
num_leaves=4
num_cat=0
split_feature=1 0 2
split_gain=18549.9 3780.65 2400.61
threshold=92.500000000000014 212.00000000000003 3.5000000000000004
decision_type=8 2 8
left_child=1 -1 -2
right_child=2 -3 -4
leaf_value=-0.025081902981991162 0.081896652455339891 0.065303143455006943 -0.23578814088532385
leaf_weight=6695.6205401420593 256.987662948668 14984.749617122114 3196.5484757572412
leaf_count=96711 4107 260023 15535
internal_value=0 0.0373892 -0.212148
internal_weight=0 21680.4 3453.54
internal_count=376376 356734 19642
is_linear=0
shrinkage=0.1


Tree=4
num_leaves=4
num_cat=0
split_feature=1 0 2
split_gain=14250.1 3302.78 1718.05
threshold=18116.000000000004 212.00000000000003 3.5000000000000004
decision_type=8 2 8
left_child=1 -1 -2
right_child=2 -3 -4
leaf_value=-0.022170715723707282 0.079433013423707358 0.062302908171088682 -0.19792246828986751
leaf_weight=6876.2459232211113 239.0511386282742 14159.060203783214 3397.6164719611406
leaf_count=97084 4103 260181 15008
internal_value=0 0.0346893 -0.179691
internal_weight=0 21035.3 3636.67
internal_count=376376 357265 19111
is_linear=0
shrinkage=0.1


Tree=5
num_leaves=4
num_cat=0
split_feature=1 0 2
split_gain=11238.5 2858.33 1276.72
threshold=15765.000000000002 212.00000000000003 3.5000000000000004
decision_type=8 2 8
left_child=1 -1 -2
right_child=2 -3 -4
leaf_value=-0.019452578089033289 0.076957912557072586 0.059438850277264366 -0.16973871180772215
leaf_weight=6987.9712546244264 222.90697747841477 13397.416920926422 3563.1005375832319
leaf_count=96912 4103 260181 15180
internal_value=0 0.0323954 -0.155214
internal_weight=0 20385.4 3786.01
internal_count=376376 357093 19283
is_linear=0
shrinkage=0.1


Tree=6
num_leaves=4
num_cat=0
split_feature=1 1 2
split_gain=9026.63 2668.06 989.961
threshold=18116.000000000004 1.5000000000000002 3.5000000000000004
decision_type=8 10 8
left_child=1 -1 -2
right_child=2 -3 -4
leaf_value=0.067488253668033335 0.074440428221709362 -0.0058916231458685736 -0.14980887438809806
leaf_weight=9710.6121439114213 208.17015377432108 10117.631214268506 3623.0642061382532
leaf_count=156817 4103 200448 15008
internal_value=0 0.0300452 -0.137624
internal_weight=0 19828.2 3831.23
internal_count=376376 357265 19111
is_linear=0
shrinkage=0.1


Tree=7
num_leaves=4
num_cat=0
split_feature=0 0 0
split_gain=7717.43 46283 303.46
threshold=212.00000000000003 124.00000000000001 2412.0000000000005
decision_type=2 2 2
left_child=1 -1 -2
right_child=2 -3 -4
leaf_value=-0.0030134687577098042 0.056530036680086382 -0.82492408298386199 -0.25266237992113244
leaf_weight=9867.6828712970018 12541.187102865428 736.24702633544803 31.823265962302685
leaf_count=106190 260024 9842 320
internal_value=0 -0.06008 0.0557474
internal_weight=0 10603.9 12573
internal_count=376376 116032 260344
is_linear=0
shrinkage=0.1


Tree=8
num_leaves=4
num_cat=0
split_feature=1 1 2
split_gain=7286.59 2155.19 865.25
threshold=30797.500000000004 1.5000000000000002 7.5000000000000009
decision_type=8 10 10
left_child=1 -1 -2
right_child=2 -3 -4
leaf_value=0.064187263496788785 -0.14818476167644107 -0.0026903609984161819 -0.036251092748099761
leaf_weight=9056.3022104837 2951.0036036781967 10297.870997898281 901.57488261163235
leaf_count=156817 15444 200492 3623
internal_value=0 0.0286034 -0.12199
internal_weight=0 19354.2 3852.58
internal_count=376376 357309 19067
is_linear=0
shrinkage=0.1


Tree=9
num_leaves=4
num_cat=0
split_feature=1 0 2
split_gain=5920.82 2083.52 845.387
threshold=30797.500000000004 212.00000000000003 3.5000000000000004
decision_type=8 2 8
left_child=1 -1 -2
right_child=2 -3 -4
leaf_value=-0.016280865462084539 0.077804851157243823 0.052275894708422602 -0.12103223059855311
leaf_weight=7109.3628739453852 227.17177665233612 11775.609104644507 3639.7551132440567
leaf_count=97097 4102 260212 14965
internal_value=0 0.0264673 -0.109351
internal_weight=0 18885 3866.93
internal_count=376376 357309 19067
is_linear=0
shrinkage=0.1


end of trees

feature_importances:
size=10
len=10
len_dict=10

parameters:
[boosting: gbdt]
[objective: binary]
[metric: binary_error]
[tree_learner: serial]
[device_type: cpu]
[data_sample_strategy: bagging]
[data: ]
[valid: ]
[num_iterations: 10]
[learning_rate: 0.1]
[num_leaves: 4]
[num_threads: 0]
[seed: 0]
[deterministic: 0]
[force_col_wise: 0]
[force_row_wise: 0]
[histogram_pool_size: -1]
[max_depth: 2]
[min_data_in_leaf: 20]
[min_sum_hessian_in_leaf: 0.001]
[bagging_fraction: 1]
[pos_bagging_fraction: 1]
[neg_bagging_fraction: 1]
[bagging_freq: 0]
[bagging_seed: 3]
[feature_fraction: 1]
[feature_fraction_bynode: 1]
[feature_fraction_seed: 2]
[extra_trees: 0]
[extra_seed: 6]
[early_stopping_round: 0]
[first_metric_only: 0]
[max_delta_step: 0]
[lambda_l1: 0]
[lambda_l2: 0]
[linear_lambda: 0]
[min_gain_to_split: 0]
[drop_rate: 0.1]
[max_drop: 50]
[skip_drop: 0.5]
[xgboost_dart_mode: 0]
[uniform_drop: 0]
[drop_seed: 4]
[top_rate: 0.2]
[other_rate: 0.1]
[min_data_per_group: 100]
[max_cat_threshold: 32]
[cat_l2: 10]
[cat_smooth: 10]
[max_cat_to_onehot: 4]
[top_k: 20]
[monotone_constraints: ]
[monotone_constraints_method: basic]
[monotone_penalty: 0]
[feature_contri: ]
[forcedsplits_filename: ]
[refit_decay_rate: 0.9]
[cegb_tradeoff: 1]
[cegb_penalty_split: 0]
[cegb_penalty_feature_lazy: ]
[cegb_penalty_feature_coupled: ]
[path_smooth: 0]
[interaction_constraints: ]
[verbosity: 1]
[saved_feature_importance_type: 0]
[use_quantized_grad: 0]
[num_grad_quant_bins: 4]
[quant_train_renew_leaf: 0]
[stochastic_rounding: 1]
[linear_tree: 0]
[max_bin: 255]
[max_bin_by_feature: ]
[min_data_in_bin: 3]
[bin_construct_sample_cnt: 200000]
[data_random_seed: 1]
[is_enable_sparse: 1]
[enable_bundle: 1]
[use_missing: 1]
[zero_as_missing: 0]
[feature_pre_filter: 1]
[pre_partition: 0]
[two_round: 0]
[header: 0]
[label_column: ]
[weight_column: ]
[group_column: ]
[ignore_column: ]
[categorical_feature: ]
[forcedbins_filename: ]
[precise_float_parser: 0]
[parser_config_file: ]
[objective_seed: 5]
[num_class: 1]
[is_unbalance: 0]
[scale_pos_weight: 1]
[sigmoid: 1]
[boost_from_average: 1]
[reg_sqrt: 0]
[alpha: 0.9]
[fair_c: 1]
[poisson_max_delta_step: 0.7]
[tweedie_variance_power: 1.5]
[lambdarank_truncation_level: 30]
[lambdarank_norm: 1]
[label_gain: ]
[lambdarank_position_bias_regularization: 0]
[eval_at: ]
[multi_error_top_k: 1]
[auc_mu_weights: ]
[num_machines: 1]
[local_listen_port: 12400]
[time_out: 120]
[machine_list_filename: ]
[machines: ]
[gpu_platform_id: -1]
[gpu_device_id: -1]
[gpu_use_dp: 0]
[num_gpu: 1]

end of parameters

pandas_categorical:[]
